<?xml version="1.0"?>
<opencv_storage>
<cascade>
  <stageType>BOOST</stageType>
  <featureType>HAAR</featureType>
  <height>40</height>
  <width>40</width>
  <stageParams>
    <boostType>GAB</boostType>
    <minHitRate>9.9500000476837158e-01</minHitRate>
    <maxFalseAlarm>5.0000000000000000e-01</maxFalseAlarm>
    <weightTrimRate>9.4999999999999996e-01</weightTrimRate>
    <maxDepth>1</maxDepth>
    <maxWeakCount>100</maxWeakCount></stageParams>
  <featureParams>
    <maxCatCount>0</maxCatCount>
    <featSize>1</featSize>
    <mode>BASIC</mode></featureParams>
  <stageNum>20</stageNum>
  <stages>
    <!-- stage 0 -->
    <_>
      <maxWeakCount>4</maxWeakCount>
      <stageThreshold>-7.4526864290237427e-01</stageThreshold>
      <weakClassifiers>
        <_>
          <internalNodes>
            0 -1 97 1.8275057896971703e-02</internalNodes>
          <leafValues>
            -7.3053890466690063e-01 6.5079367160797119e-01</leafValues></_>
        <_>
          <internalNodes>
            0 -1 63 -2.3399428464472294e-03</internalNodes>
          <leafValues>
            4.1007515788078308e-01 -7.9027765989303589e-01</leafValues></_>
        <_>
          <internalNodes>
            0 -1 48 -6.2052898108959198e-02</internalNodes>
          <leafValues>
            -6.1437100172042847e-01 5.0745189189910889e-01</leafValues></_>
        <_>
          <internalNodes>
            0 -1 49 -4.9514207057654858e-04</internalNodes>
          <leafValues>
            -9.1447621583938599e-01 2.6809605956077576e-01</leafValues></_></weakClassifiers></_>
    <!-- stage 1 -->
    <_>
      <maxWeakCount>5</maxWeakCount>
      <stageThreshold>-1.4151738882064819e+00</stageThreshold>
      <weakClassifiers>
        <_>
          <internalNodes>
            0 -1 12 -1.9043521955609322e-02</internalNodes>
          <leafValues>
            4.0845069289207458e-01 -7.1165645122528076e-01</leafValues></_>
        <_>
          <internalNodes>
            0 -1 69 -3.3803716301918030e-02</internalNodes>
          <leafValues>
            -8.8777351379394531e-01 2.2410519421100616e-01</leafValues></_>
        <_>
          <internalNodes>
            0 -1 110 1.1748907127184793e-05</internalNodes>
          <leafValues>
            -7.1349304914474487e-01 3.6548760533332825e-01</leafValues></_>
        <_>
          <internalNodes>
            0 -1 74 8.9864935725927353e-03</internalNodes>
          <leafValues>
            -5.0046104192733765e-01 6.3226312398910522e-01</leafValues></_>
        <_>
          <internalNodes>
            0 -1 16 1.9648883026093245e-03</internalNodes>
          <leafValues>
            3.2776182889938354e-01 -8.1349462270736694e-01</leafValues></_></weakClassifiers></_>
    <!-- stage 2 -->
    <_>
      <maxWeakCount>4</maxWeakCount>
      <stageThreshold>-9.4418680667877197e-01</stageThreshold>
      <weakClassifiers>
        <_>
          <internalNodes>
            0 -1 39 1.3385085621848702e-03</internalNodes>
          <leafValues>
            -7.7419352531433105e-01 4.2528736591339111e-01</leafValues></_>
        <_>
          <internalNodes>
            0 -1 8 -1.3524104654788971e-01</internalNodes>
          <leafValues>
            -7.6098984479904175e-01 1.9981633126735687e-01</leafValues></_>
        <_>
          <internalNodes>
            0 -1 90 1.9085913663730025e-05</internalNodes>
          <leafValues>
            -6.9601887464523315e-01 3.5362717509269714e-01</leafValues></_>
        <_>
          <internalNodes>
            0 -1 108 8.6096217273734510e-05</internalNodes>
          <leafValues>
            -7.2343677282333374e-01 3.5376426577568054e-01</leafValues></_></weakClassifiers></_>
    <!-- stage 3 -->
    <_>
      <maxWeakCount>4</maxWeakCount>
      <stageThreshold>-1.4840515851974487e+00</stageThreshold>
      <weakClassifiers>
        <_>
          <internalNodes>
            0 -1 24 -1.1568443849682808e-02</internalNodes>
          <leafValues>
            5.5172413587570190e-01 -6.9321531057357788e-01</leafValues></_>
        <_>
          <internalNodes>
            0 -1 87 1.0418023521197028e-05</internalNodes>
          <leafValues>
            -6.9247466325759888e-01 3.6281239986419678e-01</leafValues></_>
        <_>
          <internalNodes>
            0 -1 70 -7.2220519185066223e-02</internalNodes>
          <leafValues>
            -7.8767234086990356e-01 3.6173948645591736e-01</leafValues></_>
        <_>
          <internalNodes>
            0 -1 23 -3.9830170571804047e-03</internalNodes>
          <leafValues>
            6.0875821113586426e-01 -4.6010112762451172e-01</leafValues></_></weakClassifiers></_>
    <!-- stage 4 -->
    <_>
      <maxWeakCount>4</maxWeakCount>
      <stageThreshold>-1.0554612874984741e+00</stageThreshold>
      <weakClassifiers>
        <_>
          <internalNodes>
            0 -1 51 2.0548766478896141e-03</internalNodes>
          <leafValues>
            -7.3559319972991943e-01 1.3725490868091583e-01</leafValues></_>
        <_>
          <internalNodes>
            0 -1 99 2.2538570920005441e-04</internalNodes>
          <leafValues>
            -4.6347743272781372e-01 5.0061631202697754e-01</leafValues></_>
        <_>
          <internalNodes>
            0 -1 61 -1.6258382238447666e-03</internalNodes>
          <leafValues>
            6.8630939722061157e-01 -3.2725793123245239e-01</leafValues></_>
        <_>
          <internalNodes>
            0 -1 14 -2.2609420120716095e-03</internalNodes>
          <leafValues>
            5.5724561214447021e-01 -4.0198081731796265e-01</leafValues></_></weakClassifiers></_>
    <!-- stage 5 -->
    <_>
      <maxWeakCount>3</maxWeakCount>
      <stageThreshold>-1.0835989713668823e+00</stageThreshold>
      <weakClassifiers>
        <_>
          <internalNodes>
            0 -1 6 -3.0897557735443115e-01</internalNodes>
          <leafValues>
            2.6399999856948853e-01 -8.6764705181121826e-01</leafValues></_>
        <_>
          <internalNodes>
            0 -1 34 6.3472718466073275e-04</internalNodes>
          <leafValues>
            -5.5168104171752930e-01 7.4639391899108887e-01</leafValues></_>
        <_>
          <internalNodes>
            0 -1 29 -2.6478743553161621e-01</internalNodes>
          <leafValues>
            3.5759612917900085e-01 -9.6234577894210815e-01</leafValues></_></weakClassifiers></_>
    <!-- stage 6 -->
    <_>
      <maxWeakCount>5</maxWeakCount>
      <stageThreshold>-9.7607636451721191e-01</stageThreshold>
      <weakClassifiers>
        <_>
          <internalNodes>
            0 -1 94 -5.3861900232732296e-04</internalNodes>
          <leafValues>
            4.5454546809196472e-01 -7.4374997615814209e-01</leafValues></_>
        <_>
          <internalNodes>
            0 -1 75 5.0043273949995637e-04</internalNodes>
          <leafValues>
            -3.9011463522911072e-01 9.4424843788146973e-01</leafValues></_>
        <_>
          <internalNodes>
            0 -1 91 -4.5640139433089644e-05</internalNodes>
          <leafValues>
            7.8944575786590576e-01 -3.5209757089614868e-01</leafValues></_>
        <_>
          <internalNodes>
            0 -1 78 1.2450077338144183e-04</internalNodes>
          <leafValues>
            -3.1135267019271851e-01 8.4371268749237061e-01</leafValues></_>
        <_>
          <internalNodes>
            0 -1 98 3.8759741000831127e-03</internalNodes>
          <leafValues>
            -2.5589758157730103e-01 8.2123851776123047e-01</leafValues></_></weakClassifiers></_>
    <!-- stage 7 -->
    <_>
      <maxWeakCount>4</maxWeakCount>
      <stageThreshold>-7.1279501914978027e-01</stageThreshold>
      <weakClassifiers>
        <_>
          <internalNodes>
            0 -1 5 -5.0414241850376129e-03</internalNodes>
          <leafValues>
            3.8461539149284363e-01 -6.4637678861618042e-01</leafValues></_>
        <_>
          <internalNodes>
            0 -1 19 -2.6531475596129894e-03</internalNodes>
          <leafValues>
            6.7498826980590820e-01 -3.8340270519256592e-01</leafValues></_>
        <_>
          <internalNodes>
            0 -1 77 -5.3864822257310152e-04</internalNodes>
          <leafValues>
            -1. 2.1642878651618958e-01</leafValues></_>
        <_>
          <internalNodes>
            0 -1 72 1.8811683403328061e-03</internalNodes>
          <leafValues>
            2.1849890053272247e-01 -9.3043649196624756e-01</leafValues></_></weakClassifiers></_>
    <!-- stage 8 -->
    <_>
      <maxWeakCount>6</maxWeakCount>
      <stageThreshold>-8.2525426149368286e-01</stageThreshold>
      <weakClassifiers>
        <_>
          <internalNodes>
            0 -1 100 6.2330625951290131e-04</internalNodes>
          <leafValues>
            -7.4917489290237427e-01 2.5531914830207825e-01</leafValues></_>
        <_>
          <internalNodes>
            0 -1 93 -4.7470061690546572e-04</internalNodes>
          <leafValues>
            6.3931316137313843e-01 -4.3337616324424744e-01</leafValues></_>
        <_>
          <internalNodes>
            0 -1 28 -2.6499186642467976e-03</internalNodes>
          <leafValues>
            5.5512511730194092e-01 -3.7158203125000000e-01</leafValues></_>
        <_>
          <internalNodes>
            0 -1 10 1.9890796393156052e-03</internalNodes>
          <leafValues>
            -2.8869527578353882e-01 7.9636496305465698e-01</leafValues></_>
        <_>
          <internalNodes>
            0 -1 82 -1.2078433428541757e-05</internalNodes>
          <leafValues>
            4.2073783278465271e-01 -5.4639750719070435e-01</leafValues></_>
        <_>
          <internalNodes>
            0 -1 0 -8.2503091543912888e-03</internalNodes>
          <leafValues>
            6.7823016643524170e-01 -3.2987084984779358e-01</leafValues></_></weakClassifiers></_>
    <!-- stage 9 -->
    <_>
      <maxWeakCount>5</maxWeakCount>
      <stageThreshold>-9.3994098901748657e-01</stageThreshold>
      <weakClassifiers>
        <_>
          <internalNodes>
            0 -1 37 2.7896167011931539e-04</internalNodes>
          <leafValues>
            -6.4739882946014404e-01 4.1176471114158630e-01</leafValues></_>
        <_>
          <internalNodes>
            0 -1 22 1.1570493225008249e-03</internalNodes>
          <leafValues>
            -5.3994786739349365e-01 3.4149551391601562e-01</leafValues></_>
        <_>
          <internalNodes>
            0 -1 83 8.4619392873719335e-04</internalNodes>
          <leafValues>
            -3.1044098734855652e-01 6.4445883035659790e-01</leafValues></_>
        <_>
          <internalNodes>
            0 -1 55 -4.6512670814990997e-04</internalNodes>
          <leafValues>
            -7.0639401674270630e-01 2.8035148978233337e-01</leafValues></_>
        <_>
          <internalNodes>
            0 -1 62 -1.1224159970879555e-04</internalNodes>
          <leafValues>
            3.8279730081558228e-01 -5.7305312156677246e-01</leafValues></_></weakClassifiers></_>
    <!-- stage 10 -->
    <_>
      <maxWeakCount>3</maxWeakCount>
      <stageThreshold>-6.3560652732849121e-01</stageThreshold>
      <weakClassifiers>
        <_>
          <internalNodes>
            0 -1 101 -6.3056068029254675e-04</internalNodes>
          <leafValues>
            1.5662650763988495e-01 -6.8789809942245483e-01</leafValues></_>
        <_>
          <internalNodes>
            0 -1 47 1.9006733782589436e-03</internalNodes>
          <leafValues>
            1.3486480712890625e-01 -9.2977130413055420e-01</leafValues></_>
        <_>
          <internalNodes>
            0 -1 56 5.9337168931961060e-04</internalNodes>
          <leafValues>
            1.3753826916217804e-01 -1.</leafValues></_></weakClassifiers></_>
    <!-- stage 11 -->
    <_>
      <maxWeakCount>7</maxWeakCount>
      <stageThreshold>-1.3933871984481812e+00</stageThreshold>
      <weakClassifiers>
        <_>
          <internalNodes>
            0 -1 3 -2.7641071006655693e-02</internalNodes>
          <leafValues>
            1.8840579688549042e-01 -6.5853661298751831e-01</leafValues></_>
        <_>
          <internalNodes>
            0 -1 71 1.4960244880057871e-04</internalNodes>
          <leafValues>
            1.2216042727231979e-01 -8.1159138679504395e-01</leafValues></_>
        <_>
          <internalNodes>
            0 -1 65 -1.2810650332539808e-05</internalNodes>
          <leafValues>
            3.3076310157775879e-01 -4.8489379882812500e-01</leafValues></_>
        <_>
          <internalNodes>
            0 -1 44 -2.5841034948825836e-03</internalNodes>
          <leafValues>
            -1. 1.9856038689613342e-01</leafValues></_>
        <_>
          <internalNodes>
            0 -1 104 -3.4551101271063089e-04</internalNodes>
          <leafValues>
            4.8894685506820679e-01 -3.6795255541801453e-01</leafValues></_>
        <_>
          <internalNodes>
            0 -1 84 -3.2819766784086823e-04</internalNodes>
          <leafValues>
            -7.9877579212188721e-01 2.2509619593620300e-01</leafValues></_>
        <_>
          <internalNodes>
            0 -1 52 6.8035803269594908e-04</internalNodes>
          <leafValues>
            -3.4101188182830811e-01 5.7012218236923218e-01</leafValues></_></weakClassifiers></_>
    <!-- stage 12 -->
    <_>
      <maxWeakCount>7</maxWeakCount>
      <stageThreshold>-9.1838455200195312e-01</stageThreshold>
      <weakClassifiers>
        <_>
          <internalNodes>
            0 -1 107 1.0068907868117094e-03</internalNodes>
          <leafValues>
            -6.5868264436721802e-01 2.6984128355979919e-01</leafValues></_>
        <_>
          <internalNodes>
            0 -1 58 -5.1040272228419781e-04</internalNodes>
          <leafValues>
            -8.4015643596649170e-01 1.1411160230636597e-01</leafValues></_>
        <_>
          <internalNodes>
            0 -1 32 3.9373105391860008e-03</internalNodes>
          <leafValues>
            -3.1705653667449951e-01 5.4317975044250488e-01</leafValues></_>
        <_>
          <internalNodes>
            0 -1 73 2.1710978762712330e-04</internalNodes>
          <leafValues>
            1.7229507863521576e-01 -9.3715971708297729e-01</leafValues></_>
        <_>
          <internalNodes>
            0 -1 64 4.9825506284832954e-03</internalNodes>
          <leafValues>
            -3.6022323369979858e-01 4.3345260620117188e-01</leafValues></_>
        <_>
          <internalNodes>
            0 -1 59 -1.5831263735890388e-03</internalNodes>
          <leafValues>
            7.3984849452972412e-01 -2.4582418799400330e-01</leafValues></_>
        <_>
          <internalNodes>
            0 -1 7 -4.2683519423007965e-03</internalNodes>
          <leafValues>
            4.4387897849082947e-01 -3.9093637466430664e-01</leafValues></_></weakClassifiers></_>
    <!-- stage 13 -->
    <_>
      <maxWeakCount>6</maxWeakCount>
      <stageThreshold>-8.2237404584884644e-01</stageThreshold>
      <weakClassifiers>
        <_>
          <internalNodes>
            0 -1 103 -7.8241893788799644e-05</internalNodes>
          <leafValues>
            2.5806450843811035e-01 -6.5373134613037109e-01</leafValues></_>
        <_>
          <internalNodes>
            0 -1 18 -2.3471545428037643e-03</internalNodes>
          <leafValues>
            5.9653741121292114e-01 -3.1880643963813782e-01</leafValues></_>
        <_>
          <internalNodes>
            0 -1 40 -6.4169522374868393e-03</internalNodes>
          <leafValues>
            5.4246401786804199e-01 -3.0599460005760193e-01</leafValues></_>
        <_>
          <internalNodes>
            0 -1 50 -9.1708200052380562e-03</internalNodes>
          <leafValues>
            5.0325608253479004e-01 -3.3162871003150940e-01</leafValues></_>
        <_>
          <internalNodes>
            0 -1 88 1.0811362881213427e-03</internalNodes>
          <leafValues>
            -2.8163865208625793e-01 6.1747527122497559e-01</leafValues></_>
        <_>
          <internalNodes>
            0 -1 109 1.2825279554817826e-05</internalNodes>
          <leafValues>
            -6.6457301378250122e-01 2.6303592324256897e-01</leafValues></_></weakClassifiers></_>
    <!-- stage 14 -->
    <_>
      <maxWeakCount>6</maxWeakCount>
      <stageThreshold>-9.0125048160552979e-01</stageThreshold>
      <weakClassifiers>
        <_>
          <internalNodes>
            0 -1 2 -3.5903651267290115e-02</internalNodes>
          <leafValues>
            4.8571428656578064e-01 -6.0773479938507080e-01</leafValues></_>
        <_>
          <internalNodes>
            0 -1 54 -1.5269951894879341e-02</internalNodes>
          <leafValues>
            4.1837871074676514e-01 -3.9269253611564636e-01</leafValues></_>
        <_>
          <internalNodes>
            0 -1 42 -7.5307156657800078e-04</internalNodes>
          <leafValues>
            -8.1385570764541626e-01 1.7617991566658020e-01</leafValues></_>
        <_>
          <internalNodes>
            0 -1 105 1.1429046280682087e-03</internalNodes>
          <leafValues>
            -2.4326995015144348e-01 7.4900752305984497e-01</leafValues></_>
        <_>
          <internalNodes>
            0 -1 68 8.1275263801217079e-04</internalNodes>
          <leafValues>
            -2.8931915760040283e-01 5.7293313741683960e-01</leafValues></_>
        <_>
          <internalNodes>
            0 -1 80 -7.1928108809515834e-05</internalNodes>
          <leafValues>
            6.9258356094360352e-01 -2.2770181298255920e-01</leafValues></_></weakClassifiers></_>
    <!-- stage 15 -->
    <_>
      <maxWeakCount>7</maxWeakCount>
      <stageThreshold>-1.4569771289825439e+00</stageThreshold>
      <weakClassifiers>
        <_>
          <internalNodes>
            0 -1 11 2.4232438299804926e-03</internalNodes>
          <leafValues>
            -6.1452513933181763e-01 4.3589743971824646e-01</leafValues></_>
        <_>
          <internalNodes>
            0 -1 38 9.7282420028932393e-05</internalNodes>
          <leafValues>
            -5.3410351276397705e-01 2.7063074707984924e-01</leafValues></_>
        <_>
          <internalNodes>
            0 -1 60 2.6203671470284462e-02</internalNodes>
          <leafValues>
            -2.1531824767589569e-01 7.4413448572158813e-01</leafValues></_>
        <_>
          <internalNodes>
            0 -1 31 -1.7140260752057657e-05</internalNodes>
          <leafValues>
            3.0334386229515076e-01 -5.2098864316940308e-01</leafValues></_>
        <_>
          <internalNodes>
            0 -1 96 2.6097483932971954e-03</internalNodes>
          <leafValues>
            -2.5102910399436951e-01 5.5695819854736328e-01</leafValues></_>
        <_>
          <internalNodes>
            0 -1 86 -3.4685881109908223e-04</internalNodes>
          <leafValues>
            -8.7103843688964844e-01 1.4953137934207916e-01</leafValues></_>
        <_>
          <internalNodes>
            0 -1 81 -6.7054817918688059e-05</internalNodes>
          <leafValues>
            3.6870956420898438e-01 -4.2999657988548279e-01</leafValues></_></weakClassifiers></_>
    <!-- stage 16 -->
    <_>
      <maxWeakCount>8</maxWeakCount>
      <stageThreshold>-8.6265259981155396e-01</stageThreshold>
      <weakClassifiers>
        <_>
          <internalNodes>
            0 -1 25 1.1255381396040320e-03</internalNodes>
          <leafValues>
            -5.8933335542678833e-01 8.1818181276321411e-01</leafValues></_>
        <_>
          <internalNodes>
            0 -1 45 -1.9318846170790493e-05</internalNodes>
          <leafValues>
            3.0000531673431396e-01 -5.0618469715118408e-01</leafValues></_>
        <_>
          <internalNodes>
            0 -1 43 -4.5188824879005551e-04</internalNodes>
          <leafValues>
            -8.8813263177871704e-01 1.8215391039848328e-01</leafValues></_>
        <_>
          <internalNodes>
            0 -1 85 -1.2778092059306800e-04</internalNodes>
          <leafValues>
            2.6913350820541382e-01 -6.1285799741744995e-01</leafValues></_>
        <_>
          <internalNodes>
            0 -1 1 -5.0336763262748718e-02</internalNodes>
          <leafValues>
            4.7365981340408325e-01 -3.4959709644317627e-01</leafValues></_>
        <_>
          <internalNodes>
            0 -1 21 -7.9389988968614489e-05</internalNodes>
          <leafValues>
            -6.3021743297576904e-01 2.6458826661109924e-01</leafValues></_>
        <_>
          <internalNodes>
            0 -1 41 9.8379707196727395e-05</internalNodes>
          <leafValues>
            -3.8168969750404358e-01 4.4522926211357117e-01</leafValues></_>
        <_>
          <internalNodes>
            0 -1 53 -2.0444784240680747e-05</internalNodes>
          <leafValues>
            3.9562681317329407e-01 -3.8154646754264832e-01</leafValues></_></weakClassifiers></_>
    <!-- stage 17 -->
    <_>
      <maxWeakCount>7</maxWeakCount>
      <stageThreshold>-1.0439728498458862e+00</stageThreshold>
      <weakClassifiers>
        <_>
          <internalNodes>
            0 -1 95 -1.6266874969005585e-02</internalNodes>
          <leafValues>
            6.9230771064758301e-01 -5.9568732976913452e-01</leafValues></_>
        <_>
          <internalNodes>
            0 -1 102 2.7119936421513557e-03</internalNodes>
          <leafValues>
            -5.1502430438995361e-01 3.9632087945938110e-01</leafValues></_>
        <_>
          <internalNodes>
            0 -1 20 -1.5469631762243807e-05</internalNodes>
          <leafValues>
            3.3516368269920349e-01 -5.6008678674697876e-01</leafValues></_>
        <_>
          <internalNodes>
            0 -1 4 4.6430446673184633e-04</internalNodes>
          <leafValues>
            2.1991665661334991e-01 -7.8336608409881592e-01</leafValues></_>
        <_>
          <internalNodes>
            0 -1 76 2.3727077059447765e-03</internalNodes>
          <leafValues>
            2.2472876310348511e-01 -7.3656672239303589e-01</leafValues></_>
        <_>
          <internalNodes>
            0 -1 35 -1.2976679136045277e-04</internalNodes>
          <leafValues>
            -7.7716356515884399e-01 1.5723332762718201e-01</leafValues></_>
        <_>
          <internalNodes>
            0 -1 26 4.0367536712437868e-04</internalNodes>
          <leafValues>
            1.3297908008098602e-01 -8.3528161048889160e-01</leafValues></_></weakClassifiers></_>
    <!-- stage 18 -->
    <_>
      <maxWeakCount>8</maxWeakCount>
      <stageThreshold>-1.2138445377349854e+00</stageThreshold>
      <weakClassifiers>
        <_>
          <internalNodes>
            0 -1 27 -3.1568270642310381e-03</internalNodes>
          <leafValues>
            3.4782609343528748e-01 -6.2393164634704590e-01</leafValues></_>
        <_>
          <internalNodes>
            0 -1 106 -6.6019158111885190e-05</internalNodes>
          <leafValues>
            5.3993368148803711e-01 -2.8502210974693298e-01</leafValues></_>
        <_>
          <internalNodes>
            0 -1 17 1.0002604685723782e-02</internalNodes>
          <leafValues>
            -1.6584722697734833e-01 8.0727410316467285e-01</leafValues></_>
        <_>
          <internalNodes>
            0 -1 33 -1.7526802548673004e-04</internalNodes>
          <leafValues>
            3.9888763427734375e-01 -4.1511577367782593e-01</leafValues></_>
        <_>
          <internalNodes>
            0 -1 57 -2.7809081599116325e-02</internalNodes>
          <leafValues>
            5.2200722694396973e-01 -2.6350623369216919e-01</leafValues></_>
        <_>
          <internalNodes>
            0 -1 67 -1.1697895824909210e-03</internalNodes>
          <leafValues>
            7.5346297025680542e-01 -1.7787414789199829e-01</leafValues></_>
        <_>
          <internalNodes>
            0 -1 15 1.7411174485459924e-04</internalNodes>
          <leafValues>
            -3.0818164348602295e-01 5.1465302705764771e-01</leafValues></_>
        <_>
          <internalNodes>
            0 -1 46 -3.4354854142293334e-04</internalNodes>
          <leafValues>
            -7.4001419544219971e-01 2.1163080632686615e-01</leafValues></_></weakClassifiers></_>
    <!-- stage 19 -->
    <_>
      <maxWeakCount>8</maxWeakCount>
      <stageThreshold>-1.2051684856414795e+00</stageThreshold>
      <weakClassifiers>
        <_>
          <internalNodes>
            0 -1 36 2.8719881083816290e-04</internalNodes>
          <leafValues>
            -6.1823362112045288e-01 3.0434781312942505e-01</leafValues></_>
        <_>
          <internalNodes>
            0 -1 30 -7.5557193486019969e-04</internalNodes>
          <leafValues>
            4.3661159276962280e-01 -3.9168909192085266e-01</leafValues></_>
        <_>
          <internalNodes>
            0 -1 79 -2.3431473528034985e-04</internalNodes>
          <leafValues>
            4.5254746079444885e-01 -2.9540458321571350e-01</leafValues></_>
        <_>
          <internalNodes>
            0 -1 89 -3.1476098229177296e-04</internalNodes>
          <leafValues>
            -8.4727632999420166e-01 1.6677309572696686e-01</leafValues></_>
        <_>
          <internalNodes>
            0 -1 66 -1.6120309010148048e-03</internalNodes>
          <leafValues>
            5.7768702507019043e-01 -2.3983865976333618e-01</leafValues></_>
        <_>
          <internalNodes>
            0 -1 13 -5.1938463002443314e-03</internalNodes>
          <leafValues>
            -5.8487337827682495e-01 3.0594855546951294e-01</leafValues></_>
        <_>
          <internalNodes>
            0 -1 9 -1.3533434830605984e-03</internalNodes>
          <leafValues>
            -9.6063405275344849e-01 1.0777799785137177e-01</leafValues></_>
        <_>
          <internalNodes>
            0 -1 92 8.1650287029333413e-05</internalNodes>
          <leafValues>
            -2.7226161956787109e-01 6.3406604528427124e-01</leafValues></_></weakClassifiers></_></stages>
  <features>
    <_>
      <rects>
        <_>
          0 0 12 10 -1.</_>
        <_>
          0 0 6 5 2.</_>
        <_>
          6 5 6 5 2.</_></rects>
      <tilted>0</tilted></_>
    <_>
      <rects>
        <_>
          0 1 24 13 -1.</_>
        <_>
          12 1 12 13 2.</_></rects>
      <tilted>0</tilted></_>
    <_>
      <rects>
        <_>
          0 11 6 17 -1.</_>
        <_>
          3 11 3 17 2.</_></rects>
      <tilted>0</tilted></_>
    <_>
      <rects>
        <_>
          0 21 8 14 -1.</_>
        <_>
          4 21 4 14 2.</_></rects>
      <tilted>0</tilted></_>
    <_>
      <rects>
        <_>
          0 24 34 2 -1.</_>
        <_>
          0 24 17 1 2.</_>
        <_>
          17 25 17 1 2.</_></rects>
      <tilted>0</tilted></_>
    <_>
      <rects>
        <_>
          0 29 12 1 -1.</_>
        <_>
          6 29 6 1 2.</_></rects>
      <tilted>0</tilted></_>
    <_>
      <rects>
        <_>
          1 3 39 15 -1.</_>
        <_>
          1 8 39 5 2.</_></rects>
      <tilted>0</tilted></_>
    <_>
      <rects>
        <_>
          1 12 10 10 -1.</_>
        <_>
          1 17 10 5 2.</_></rects>
      <tilted>0</tilted></_>
    <_>
      <rects>
        <_>
          1 13 33 5 -1.</_>
        <_>
          12 13 11 5 2.</_></rects>
      <tilted>0</tilted></_>
    <_>
      <rects>
        <_>
          1 20 15 2 -1.</_>
        <_>
          1 21 15 1 2.</_></rects>
      <tilted>0</tilted></_>
    <_>
      <rects>
        <_>
          1 28 8 2 -1.</_>
        <_>
          5 28 4 2 2.</_></rects>
      <tilted>0</tilted></_>
    <_>
      <rects>
        <_>
          1 29 8 4 -1.</_>
        <_>
          1 29 4 2 2.</_>
        <_>
          5 31 4 2 2.</_></rects>
      <tilted>0</tilted></_>
    <_>
      <rects>
        <_>
          1 32 12 6 -1.</_>
        <_>
          7 32 6 6 2.</_></rects>
      <tilted>0</tilted></_>
    <_>
      <rects>
        <_>
          2 2 38 1 -1.</_>
        <_>
          21 2 19 1 2.</_></rects>
      <tilted>0</tilted></_>
    <_>
      <rects>
        <_>
          2 7 4 12 -1.</_>
        <_>
          4 7 2 12 2.</_></rects>
      <tilted>0</tilted></_>
    <_>
      <rects>
        <_>
          2 15 10 2 -1.</_>
        <_>
          2 15 5 1 2.</_>
        <_>
          7 16 5 1 2.</_></rects>
      <tilted>0</tilted></_>
    <_>
      <rects>
        <_>
          2 20 33 8 -1.</_>
        <_>
          2 24 33 4 2.</_></rects>
      <tilted>0</tilted></_>
    <_>
      <rects>
        <_>
          2 23 6 9 -1.</_>
        <_>
          5 23 3 9 2.</_></rects>
      <tilted>0</tilted></_>
    <_>
      <rects>
        <_>
          2 28 6 6 -1.</_>
        <_>
          2 28 3 3 2.</_>
        <_>
          5 31 3 3 2.</_></rects>
      <tilted>0</tilted></_>
    <_>
      <rects>
        <_>
          2 32 12 4 -1.</_>
        <_>
          2 32 6 2 2.</_>
        <_>
          8 34 6 2 2.</_></rects>
      <tilted>0</tilted></_>
    <_>
      <rects>
        <_>
          3 31 2 4 -1.</_>
        <_>
          4 31 1 4 2.</_></rects>
      <tilted>0</tilted></_>
    <_>
      <rects>
        <_>
          3 35 3 4 -1.</_>
        <_>
          3 37 3 2 2.</_></rects>
      <tilted>0</tilted></_>
    <_>
      <rects>
        <_>
          3 38 21 2 -1.</_>
        <_>
          3 39 21 1 2.</_></rects>
      <tilted>0</tilted></_>
    <_>
      <rects>
        <_>
          3 39 20 1 -1.</_>
        <_>
          13 39 10 1 2.</_></rects>
      <tilted>0</tilted></_>
    <_>
      <rects>
        <_>
          4 1 36 4 -1.</_>
        <_>
          4 3 36 2 2.</_></rects>
      <tilted>0</tilted></_>
    <_>
      <rects>
        <_>
          4 26 2 6 -1.</_>
        <_>
          4 26 1 3 2.</_>
        <_>
          5 29 1 3 2.</_></rects>
      <tilted>0</tilted></_>
    <_>
      <rects>
        <_>
          5 2 6 1 -1.</_>
        <_>
          8 2 3 1 2.</_></rects>
      <tilted>0</tilted></_>
    <_>
      <rects>
        <_>
          5 4 4 8 -1.</_>
        <_>
          5 4 2 4 2.</_>
        <_>
          7 8 2 4 2.</_></rects>
      <tilted>0</tilted></_>
    <_>
      <rects>
        <_>
          5 27 4 13 -1.</_>
        <_>
          7 27 2 13 2.</_></rects>
      <tilted>0</tilted></_>
    <_>
      <rects>
        <_>
          6 0 21 34 -1.</_>
        <_>
          13 0 7 34 2.</_></rects>
      <tilted>0</tilted></_>
    <_>
      <rects>
        <_>
          6 20 2 16 -1.</_>
        <_>
          6 20 1 8 2.</_>
        <_>
          7 28 1 8 2.</_></rects>
      <tilted>0</tilted></_>
    <_>
      <rects>
        <_>
          6 23 4 2 -1.</_>
        <_>
          6 24 4 1 2.</_></rects>
      <tilted>0</tilted></_>
    <_>
      <rects>
        <_>
          7 3 6 10 -1.</_>
        <_>
          7 3 3 5 2.</_>
        <_>
          10 8 3 5 2.</_></rects>
      <tilted>0</tilted></_>
    <_>
      <rects>
        <_>
          7 20 8 2 -1.</_>
        <_>
          7 21 8 1 2.</_></rects>
      <tilted>0</tilted></_>
    <_>
      <rects>
        <_>
          8 4 2 12 -1.</_>
        <_>
          8 4 1 6 2.</_>
        <_>
          9 10 1 6 2.</_></rects>
      <tilted>0</tilted></_>
    <_>
      <rects>
        <_>
          8 22 2 3 -1.</_>
        <_>
          9 22 1 3 2.</_></rects>
      <tilted>0</tilted></_>
    <_>
      <rects>
        <_>
          8 34 4 2 -1.</_>
        <_>
          8 34 2 1 2.</_>
        <_>
          10 35 2 1 2.</_></rects>
      <tilted>0</tilted></_>
    <_>
      <rects>
        <_>
          9 3 4 2 -1.</_>
        <_>
          9 3 2 1 2.</_>
        <_>
          11 4 2 1 2.</_></rects>
      <tilted>0</tilted></_>
    <_>
      <rects>
        <_>
          9 36 1 4 -1.</_>
        <_>
          9 38 1 2 2.</_></rects>
      <tilted>0</tilted></_>
    <_>
      <rects>
        <_>
          10 38 15 2 -1.</_>
        <_>
          10 39 15 1 2.</_></rects>
      <tilted>0</tilted></_>
    <_>
      <rects>
        <_>
          11 0 4 8 -1.</_>
        <_>
          11 4 4 4 2.</_></rects>
      <tilted>0</tilted></_>
    <_>
      <rects>
        <_>
          11 6 2 14 -1.</_>
        <_>
          12 6 1 14 2.</_></rects>
      <tilted>0</tilted></_>
    <_>
      <rects>
        <_>
          11 17 12 4 -1.</_>
        <_>
          11 17 6 2 2.</_>
        <_>
          17 19 6 2 2.</_></rects>
      <tilted>0</tilted></_>
    <_>
      <rects>
        <_>
          11 20 18 2 -1.</_>
        <_>
          11 20 9 1 2.</_>
        <_>
          20 21 9 1 2.</_></rects>
      <tilted>0</tilted></_>
    <_>
      <rects>
        <_>
          11 24 12 6 -1.</_>
        <_>
          11 24 6 3 2.</_>
        <_>
          17 27 6 3 2.</_></rects>
      <tilted>0</tilted></_>
    <_>
      <rects>
        <_>
          12 16 8 6 -1.</_>
        <_>
          12 16 4 3 2.</_>
        <_>
          16 19 4 3 2.</_></rects>
      <tilted>0</tilted></_>
    <_>
      <rects>
        <_>
          14 7 14 2 -1.</_>
        <_>
          14 7 7 1 2.</_>
        <_>
          21 8 7 1 2.</_></rects>
      <tilted>0</tilted></_>
    <_>
      <rects>
        <_>
          14 17 20 4 -1.</_>
        <_>
          14 17 10 2 2.</_>
        <_>
          24 19 10 2 2.</_></rects>
      <tilted>0</tilted></_>
    <_>
      <rects>
        <_>
          14 30 21 5 -1.</_>
        <_>
          21 30 7 5 2.</_></rects>
      <tilted>0</tilted></_>
    <_>
      <rects>
        <_>
          17 8 8 4 -1.</_>
        <_>
          17 8 4 2 2.</_>
        <_>
          21 10 4 2 2.</_></rects>
      <tilted>0</tilted></_>
    <_>
      <rects>
        <_>
          17 29 11 10 -1.</_>
        <_>
          17 34 11 5 2.</_></rects>
      <tilted>0</tilted></_>
    <_>
      <rects>
        <_>
          17 38 23 2 -1.</_>
        <_>
          17 39 23 1 2.</_></rects>
      <tilted>0</tilted></_>
    <_>
      <rects>
        <_>
          18 1 12 2 -1.</_>
        <_>
          18 1 6 1 2.</_>
        <_>
          24 2 6 1 2.</_></rects>
      <tilted>0</tilted></_>
    <_>
      <rects>
        <_>
          18 2 4 2 -1.</_>
        <_>
          18 2 2 1 2.</_>
        <_>
          20 3 2 1 2.</_></rects>
      <tilted>0</tilted></_>
    <_>
      <rects>
        <_>
          18 11 12 26 -1.</_>
        <_>
          24 11 6 26 2.</_></rects>
      <tilted>0</tilted></_>
    <_>
      <rects>
        <_>
          18 17 12 4 -1.</_>
        <_>
          18 17 6 2 2.</_>
        <_>
          24 19 6 2 2.</_></rects>
      <tilted>0</tilted></_>
    <_>
      <rects>
        <_>
          18 30 8 4 -1.</_>
        <_>
          18 30 4 2 2.</_>
        <_>
          22 32 4 2 2.</_></rects>
      <tilted>0</tilted></_>
    <_>
      <rects>
        <_>
          19 0 17 8 -1.</_>
        <_>
          19 4 17 4 2.</_></rects>
      <tilted>0</tilted></_>
    <_>
      <rects>
        <_>
          19 30 8 4 -1.</_>
        <_>
          19 30 4 2 2.</_>
        <_>
          23 32 4 2 2.</_></rects>
      <tilted>0</tilted></_>
    <_>
      <rects>
        <_>
          19 34 14 4 -1.</_>
        <_>
          19 34 7 2 2.</_>
        <_>
          26 36 7 2 2.</_></rects>
      <tilted>0</tilted></_>
    <_>
      <rects>
        <_>
          20 0 14 12 -1.</_>
        <_>
          20 6 14 6 2.</_></rects>
      <tilted>0</tilted></_>
    <_>
      <rects>
        <_>
          21 35 8 4 -1.</_>
        <_>
          21 37 8 2 2.</_></rects>
      <tilted>0</tilted></_>
    <_>
      <rects>
        <_>
          22 20 8 2 -1.</_>
        <_>
          22 21 8 1 2.</_></rects>
      <tilted>0</tilted></_>
    <_>
      <rects>
        <_>
          22 23 10 8 -1.</_>
        <_>
          22 27 10 4 2.</_></rects>
      <tilted>0</tilted></_>
    <_>
      <rects>
        <_>
          22 30 12 10 -1.</_>
        <_>
          22 30 6 5 2.</_>
        <_>
          28 35 6 5 2.</_></rects>
      <tilted>0</tilted></_>
    <_>
      <rects>
        <_>
          22 34 1 2 -1.</_>
        <_>
          22 35 1 1 2.</_></rects>
      <tilted>0</tilted></_>
    <_>
      <rects>
        <_>
          22 35 5 4 -1.</_>
        <_>
          22 37 5 2 2.</_></rects>
      <tilted>0</tilted></_>
    <_>
      <rects>
        <_>
          23 1 8 2 -1.</_>
        <_>
          23 1 4 1 2.</_>
        <_>
          27 2 4 1 2.</_></rects>
      <tilted>0</tilted></_>
    <_>
      <rects>
        <_>
          24 4 12 2 -1.</_>
        <_>
          24 4 6 1 2.</_>
        <_>
          30 5 6 1 2.</_></rects>
      <tilted>0</tilted></_>
    <_>
      <rects>
        <_>
          24 29 9 5 -1.</_>
        <_>
          27 29 3 5 2.</_></rects>
      <tilted>0</tilted></_>
    <_>
      <rects>
        <_>
          24 32 15 6 -1.</_>
        <_>
          29 32 5 6 2.</_></rects>
      <tilted>0</tilted></_>
    <_>
      <rects>
        <_>
          25 8 2 5 -1.</_>
        <_>
          26 8 1 5 2.</_></rects>
      <tilted>0</tilted></_>
    <_>
      <rects>
        <_>
          25 12 4 20 -1.</_>
        <_>
          25 12 2 10 2.</_>
        <_>
          27 22 2 10 2.</_></rects>
      <tilted>0</tilted></_>
    <_>
      <rects>
        <_>
          25 13 8 2 -1.</_>
        <_>
          25 13 4 1 2.</_>
        <_>
          29 14 4 1 2.</_></rects>
      <tilted>0</tilted></_>
    <_>
      <rects>
        <_>
          26 24 14 16 -1.</_>
        <_>
          26 24 7 8 2.</_>
        <_>
          33 32 7 8 2.</_></rects>
      <tilted>0</tilted></_>
    <_>
      <rects>
        <_>
          27 3 6 2 -1.</_>
        <_>
          27 3 3 1 2.</_>
        <_>
          30 4 3 1 2.</_></rects>
      <tilted>0</tilted></_>
    <_>
      <rects>
        <_>
          27 16 6 14 -1.</_>
        <_>
          27 16 3 7 2.</_>
        <_>
          30 23 3 7 2.</_></rects>
      <tilted>0</tilted></_>
    <_>
      <rects>
        <_>
          27 17 2 16 -1.</_>
        <_>
          27 17 1 8 2.</_>
        <_>
          28 25 1 8 2.</_></rects>
      <tilted>0</tilted></_>
    <_>
      <rects>
        <_>
          27 35 4 2 -1.</_>
        <_>
          27 35 2 1 2.</_>
        <_>
          29 36 2 1 2.</_></rects>
      <tilted>0</tilted></_>
    <_>
      <rects>
        <_>
          27 36 4 4 -1.</_>
        <_>
          27 36 2 2 2.</_>
        <_>
          29 38 2 2 2.</_></rects>
      <tilted>0</tilted></_>
    <_>
      <rects>
        <_>
          29 4 2 2 -1.</_>
        <_>
          29 4 1 1 2.</_>
        <_>
          30 5 1 1 2.</_></rects>
      <tilted>0</tilted></_>
    <_>
      <rects>
        <_>
          29 17 4 3 -1.</_>
        <_>
          31 17 2 3 2.</_></rects>
      <tilted>0</tilted></_>
    <_>
      <rects>
        <_>
          29 26 1 2 -1.</_>
        <_>
          29 27 1 1 2.</_></rects>
      <tilted>0</tilted></_>
    <_>
      <rects>
        <_>
          30 3 4 4 -1.</_>
        <_>
          30 3 2 2 2.</_>
        <_>
          32 5 2 2 2.</_></rects>
      <tilted>0</tilted></_>
    <_>
      <rects>
        <_>
          30 16 2 16 -1.</_>
        <_>
          30 16 1 8 2.</_>
        <_>
          31 24 1 8 2.</_></rects>
      <tilted>0</tilted></_>
    <_>
      <rects>
        <_>
          30 25 2 6 -1.</_>
        <_>
          30 28 2 3 2.</_></rects>
      <tilted>0</tilted></_>
    <_>
      <rects>
        <_>
          31 11 2 10 -1.</_>
        <_>
          31 11 1 5 2.</_>
        <_>
          32 16 1 5 2.</_></rects>
      <tilted>0</tilted></_>
    <_>
      <rects>
        <_>
          31 38 1 2 -1.</_>
        <_>
          31 39 1 1 2.</_></rects>
      <tilted>0</tilted></_>
    <_>
      <rects>
        <_>
          32 4 4 6 -1.</_>
        <_>
          32 4 2 3 2.</_>
        <_>
          34 7 2 3 2.</_></rects>
      <tilted>0</tilted></_>
    <_>
      <rects>
        <_>
          32 18 4 6 -1.</_>
        <_>
          32 18 2 3 2.</_>
        <_>
          34 21 2 3 2.</_></rects>
      <tilted>0</tilted></_>
    <_>
      <rects>
        <_>
          32 37 2 3 -1.</_>
        <_>
          33 37 1 3 2.</_></rects>
      <tilted>0</tilted></_>
    <_>
      <rects>
        <_>
          33 6 2 2 -1.</_>
        <_>
          33 6 1 1 2.</_>
        <_>
          34 7 1 1 2.</_></rects>
      <tilted>0</tilted></_>
    <_>
      <rects>
        <_>
          33 7 2 2 -1.</_>
        <_>
          33 7 1 1 2.</_>
        <_>
          34 8 1 1 2.</_></rects>
      <tilted>0</tilted></_>
    <_>
      <rects>
        <_>
          34 5 2 8 -1.</_>
        <_>
          34 5 1 4 2.</_>
        <_>
          35 9 1 4 2.</_></rects>
      <tilted>0</tilted></_>
    <_>
      <rects>
        <_>
          34 6 2 12 -1.</_>
        <_>
          34 6 1 6 2.</_>
        <_>
          35 12 1 6 2.</_></rects>
      <tilted>0</tilted></_>
    <_>
      <rects>
        <_>
          34 15 6 12 -1.</_>
        <_>
          37 15 3 12 2.</_></rects>
      <tilted>0</tilted></_>
    <_>
      <rects>
        <_>
          34 17 3 18 -1.</_>
        <_>
          34 26 3 9 2.</_></rects>
      <tilted>0</tilted></_>
    <_>
      <rects>
        <_>
          34 17 6 19 -1.</_>
        <_>
          37 17 3 19 2.</_></rects>
      <tilted>0</tilted></_>
    <_>
      <rects>
        <_>
          34 24 4 8 -1.</_>
        <_>
          36 24 2 8 2.</_></rects>
      <tilted>0</tilted></_>
    <_>
      <rects>
        <_>
          35 6 2 6 -1.</_>
        <_>
          35 6 1 3 2.</_>
        <_>
          36 9 1 3 2.</_></rects>
      <tilted>0</tilted></_>
    <_>
      <rects>
        <_>
          35 8 4 6 -1.</_>
        <_>
          35 8 2 3 2.</_>
        <_>
          37 11 2 3 2.</_></rects>
      <tilted>0</tilted></_>
    <_>
      <rects>
        <_>
          35 9 2 8 -1.</_>
        <_>
          35 9 1 4 2.</_>
        <_>
          36 13 1 4 2.</_></rects>
      <tilted>0</tilted></_>
    <_>
      <rects>
        <_>
          36 9 2 25 -1.</_>
        <_>
          37 9 1 25 2.</_></rects>
      <tilted>0</tilted></_>
    <_>
      <rects>
        <_>
          36 12 2 2 -1.</_>
        <_>
          36 12 1 1 2.</_>
        <_>
          37 13 1 1 2.</_></rects>
      <tilted>0</tilted></_>
    <_>
      <rects>
        <_>
          36 12 2 10 -1.</_>
        <_>
          36 12 1 5 2.</_>
        <_>
          37 17 1 5 2.</_></rects>
      <tilted>0</tilted></_>
    <_>
      <rects>
        <_>
          36 19 2 12 -1.</_>
        <_>
          36 19 1 6 2.</_>
        <_>
          37 25 1 6 2.</_></rects>
      <tilted>0</tilted></_>
    <_>
      <rects>
        <_>
          37 26 2 2 -1.</_>
        <_>
          37 26 1 1 2.</_>
        <_>
          38 27 1 1 2.</_></rects>
      <tilted>0</tilted></_>
    <_>
      <rects>
        <_>
          38 11 2 10 -1.</_>
        <_>
          38 11 1 5 2.</_>
        <_>
          39 16 1 5 2.</_></rects>
      <tilted>0</tilted></_>
    <_>
      <rects>
        <_>
          38 25 2 14 -1.</_>
        <_>
          39 25 1 14 2.</_></rects>
      <tilted>0</tilted></_>
    <_>
      <rects>
        <_>
          38 28 2 3 -1.</_>
        <_>
          39 28 1 3 2.</_></rects>
      <tilted>0</tilted></_>
    <_>
      <rects>
        <_>
          38 30 2 1 -1.</_>
        <_>
          39 30 1 1 2.</_></rects>
      <tilted>0</tilted></_></features></cascade>
</opencv_storage>
